digraph Tree {
node [shape=box] ;
0 [label="is_foreigner <= 0.5\nmse = 16714419.271\nsamples = 1306\nvalue = 2101.191"] ;
1 [label="bus_class <= 0.5\nmse = 25165514.128\nsamples = 668\nvalue = 4015.298"] ;
0 -> 1 [labeldistance=2.5, labelangle=45, headlabel="True"] ;
2 [label="depart_period_night <= 0.5\nmse = 32103432.461\nsamples = 351\nvalue = 5962.838"] ;
1 -> 2 ;
3 [label="avg_dur <= 589.089\nmse = 7081892.647\nsamples = 231\nvalue = 4418.29"] ;
2 -> 3 ;
4 [label="avg_dur <= 510.731\nmse = 5069349.191\nsamples = 182\nvalue = 5319.308"] ;
3 -> 4 ;
5 [label="subroute_name_Naypyitaw-Yangon <= 0.5\nmse = 2985171.418\nsamples = 156\nvalue = 4829.891"] ;
4 -> 5 ;
6 [label="mse = 2411217.186\nsamples = 132\nvalue = 4437.106"] ;
5 -> 6 ;
7 [label="mse = 626408.665\nsamples = 24\nvalue = 6990.208"] ;
5 -> 7 ;
8 [label="subroute_name_Mawlamyine-Yangon <= 0.5\nmse = 7514211.54\nsamples = 26\nvalue = 8255.808"] ;
4 -> 8 ;
9 [label="mse = 2731895.498\nsamples = 24\nvalue = 8900.792"] ;
8 -> 9 ;
10 [label="mse = 5329.0\nsamples = 2\nvalue = 516.0"] ;
8 -> 10 ;
11 [label="avg_dur <= 633.905\nmse = 341695.982\nsamples = 49\nvalue = 1071.653"] ;
3 -> 11 ;
12 [label="subroute_name_Yangon-Mandalay <= 0.5\nmse = 92310.984\nsamples = 16\nvalue = 572.625"] ;
11 -> 12 ;
13 [label="mse = 69917.157\nsamples = 11\nvalue = 434.455"] ;
12 -> 13 ;
14 [label="mse = 7176.24\nsamples = 5\nvalue = 876.6"] ;
12 -> 14 ;
15 [label="depart_period_aft <= 0.5\nmse = 283327.33\nsamples = 33\nvalue = 1313.606"] ;
11 -> 15 ;
16 [label="mse = 1512.0\nsamples = 3\nvalue = 593.0"] ;
15 -> 16 ;
17 [label="mse = 254388.822\nsamples = 30\nvalue = 1385.667"] ;
15 -> 17 ;
18 [label="avg_dur <= 507.791\nmse = 66837324.583\nsamples = 120\nvalue = 8936.092"] ;
2 -> 18 ;
19 [label="subroute_name_Yangon-Naypyitaw <= 0.5\nmse = 5635364.71\nsamples = 84\nvalue = 4910.833"] ;
18 -> 19 ;
20 [label="subroute_name_Naypyitaw-Yangon <= 0.5\nmse = 2415908.201\nsamples = 72\nvalue = 4154.722"] ;
19 -> 20 ;
21 [label="mse = 1435239.712\nsamples = 60\nvalue = 3675.567"] ;
20 -> 21 ;
22 [label="mse = 431549.25\nsamples = 12\nvalue = 6550.5"] ;
20 -> 22 ;
23 [label="trip_month <= 11.5\nmse = 940535.25\nsamples = 12\nvalue = 9447.5"] ;
19 -> 23 ;
24 [label="mse = 729050.331\nsamples = 11\nvalue = 9290.182"] ;
23 -> 24 ;
25 [label="mse = 0.0\nsamples = 1\nvalue = 11178.0"] ;
23 -> 25 ;
26 [label="subroute_name_Yangon-Taunggyi <= 0.5\nmse = 83620861.453\nsamples = 36\nvalue = 18328.361"] ;
18 -> 26 ;
27 [label="trip_month <= 11.5\nmse = 7345348.748\nsamples = 24\nvalue = 24575.792"] ;
26 -> 27 ;
28 [label="mse = 6635014.399\nsamples = 22\nvalue = 24239.682"] ;
27 -> 28 ;
29 [label="mse = 247009.0\nsamples = 2\nvalue = 28273.0"] ;
27 -> 29 ;
30 [label="trip_month <= 9.5\nmse = 1989555.583\nsamples = 12\nvalue = 5833.5"] ;
26 -> 30 ;
31 [label="mse = 1014660.765\nsamples = 9\nvalue = 5203.111"] ;
30 -> 31 ;
32 [label="mse = 145558.222\nsamples = 3\nvalue = 7724.667"] ;
30 -> 32 ;
33 [label="avg_dur <= 515.895\nmse = 8633579.385\nsamples = 317\nvalue = 1858.874"] ;
1 -> 33 ;
34 [label="avg_dur <= 450.0\nmse = 198291.555\nsamples = 217\nvalue = 803.677"] ;
33 -> 34 ;
35 [label="avg_dur <= 312.589\nmse = 151180.855\nsamples = 198\nvalue = 879.768"] ;
34 -> 35 ;
36 [label="depart_period_night <= 0.5\nmse = 86934.557\nsamples = 68\nvalue = 660.176"] ;
35 -> 36 ;
37 [label="mse = 84118.912\nsamples = 51\nvalue = 705.902"] ;
36 -> 37 ;
38 [label="mse = 70291.647\nsamples = 17\nvalue = 523.0"] ;
36 -> 38 ;
39 [label="avg_dur <= 332.288\nmse = 146370.156\nsamples = 130\nvalue = 994.631"] ;
35 -> 39 ;
40 [label="mse = 107635.09\nsamples = 10\nvalue = 1879.1"] ;
39 -> 40 ;
41 [label="mse = 78975.053\nsamples = 120\nvalue = 920.925"] ;
39 -> 41 ;
42 [label="avg_dur <= 497.368\nmse = 144.825\nsamples = 19\nvalue = 10.737"] ;
34 -> 42 ;
43 [label="trip_month <= 4.0\nmse = 62.469\nsamples = 18\nvalue = 8.556"] ;
42 -> 43 ;
44 [label="mse = 50.472\nsamples = 6\nvalue = 17.833"] ;
43 -> 44 ;
45 [label="mse = 3.91\nsamples = 12\nvalue = 3.917"] ;
43 -> 45 ;
46 [label="mse = 0.0\nsamples = 1\nvalue = 50.0"] ;
42 -> 46 ;
47 [label="avg_dur <= 542.442\nmse = 19278915.428\nsamples = 100\nvalue = 4148.65"] ;
33 -> 47 ;
48 [label="depart_period_morn <= 0.5\nmse = 17463500.384\nsamples = 49\nvalue = 7251.939"] ;
47 -> 48 ;
49 [label="bus_class <= 1.5\nmse = 6021374.443\nsamples = 24\nvalue = 11076.875"] ;
48 -> 49 ;
50 [label="mse = 1105533.183\nsamples = 23\nvalue = 11541.348"] ;
49 -> 50 ;
51 [label="mse = 0.0\nsamples = 1\nvalue = 394.0"] ;
49 -> 51 ;
52 [label="bus_class <= 1.5\nmse = 919875.28\nsamples = 25\nvalue = 3580.0"] ;
48 -> 52 ;
53 [label="mse = 421036.576\nsamples = 24\nvalue = 3726.583"] ;
52 -> 53 ;
54 [label="mse = 0.0\nsamples = 1\nvalue = 62.0"] ;
52 -> 54 ;
55 [label="bus_class <= 1.5\nmse = 2880513.349\nsamples = 51\nvalue = 1167.059"] ;
47 -> 55 ;
56 [label="avg_dur <= 571.63\nmse = 4597449.963\nsamples = 28\nvalue = 1706.464"] ;
55 -> 56 ;
57 [label="mse = 0.0\nsamples = 1\nvalue = 11354.0"] ;
56 -> 57 ;
58 [label="mse = 1192830.867\nsamples = 27\nvalue = 1349.148"] ;
56 -> 58 ;
59 [label="trip_month <= 9.5\nmse = 4907.369\nsamples = 23\nvalue = 510.391"] ;
55 -> 59 ;
60 [label="mse = 1695.875\nsamples = 17\nvalue = 476.647"] ;
59 -> 60 ;
61 [label="mse = 1639.333\nsamples = 6\nvalue = 606.0"] ;
59 -> 61 ;
62 [label="bus_class <= 0.5\nmse = 13391.873\nsamples = 638\nvalue = 97.08"] ;
0 -> 62 [labeldistance=2.5, labelangle=-45, headlabel="False"] ;
63 [label="subroute_name_Naypyitaw-Yangon <= 0.5\nmse = 15667.472\nsamples = 344\nvalue = 130.07"] ;
62 -> 63 ;
64 [label="avg_dur <= 598.571\nmse = 14503.212\nsamples = 308\nvalue = 115.925"] ;
63 -> 64 ;
65 [label="avg_dur <= 518.998\nmse = 15848.622\nsamples = 248\nvalue = 133.121"] ;
64 -> 65 ;
66 [label="avg_dur <= 354.891\nmse = 4629.498\nsamples = 194\nvalue = 93.196"] ;
65 -> 66 ;
67 [label="mse = 5357.929\nsamples = 90\nvalue = 133.933"] ;
66 -> 67 ;
68 [label="mse = 1320.17\nsamples = 104\nvalue = 57.942"] ;
66 -> 68 ;
69 [label="depart_period_morn <= 0.5\nmse = 29854.247\nsamples = 54\nvalue = 276.556"] ;
65 -> 69 ;
70 [label="mse = 28351.469\nsamples = 31\nvalue = 358.581"] ;
69 -> 70 ;
71 [label="mse = 10588.87\nsamples = 23\nvalue = 166.0"] ;
69 -> 71 ;
72 [label="depart_period_aft <= 0.5\nmse = 2668.294\nsamples = 60\nvalue = 44.85"] ;
64 -> 72 ;
73 [label="avg_dur <= 731.77\nmse = 5613.4\nsamples = 20\nvalue = 68.0"] ;
72 -> 73 ;
74 [label="mse = 1779.812\nsamples = 19\nvalue = 53.632"] ;
73 -> 74 ;
75 [label="mse = 0.0\nsamples = 1\nvalue = 341.0"] ;
73 -> 75 ;
76 [label="subroute_name_Yangon-Mandalay <= 0.5\nmse = 793.799\nsamples = 40\nvalue = 33.275"] ;
72 -> 76 ;
77 [label="mse = 356.667\nsamples = 28\nvalue = 19.107"] ;
76 -> 77 ;
78 [label="mse = 252.556\nsamples = 12\nvalue = 66.333"] ;
76 -> 78 ;
79 [label="trip_month <= 6.5\nmse = 9272.41\nsamples = 36\nvalue = 251.083"] ;
63 -> 79 ;
80 [label="avg_dur <= 304.023\nmse = 5172.444\nsamples = 18\nvalue = 205.0"] ;
79 -> 80 ;
81 [label="trip_month <= 1.5\nmse = 1620.531\nsamples = 7\nvalue = 275.429"] ;
80 -> 81 ;
82 [label="mse = 1650.667\nsamples = 3\nvalue = 309.0"] ;
81 -> 82 ;
83 [label="mse = 118.688\nsamples = 4\nvalue = 250.25"] ;
81 -> 83 ;
84 [label="avg_dur <= 312.267\nmse = 2267.603\nsamples = 11\nvalue = 160.182"] ;
80 -> 84 ;
85 [label="mse = 406.408\nsamples = 7\nvalue = 191.143"] ;
84 -> 85 ;
86 [label="mse = 911.5\nsamples = 4\nvalue = 106.0"] ;
84 -> 86 ;
87 [label="avg_dur <= 317.905\nmse = 9125.028\nsamples = 18\nvalue = 297.167"] ;
79 -> 87 ;
88 [label="depart_period_aft <= 0.5\nmse = 4978.446\nsamples = 11\nvalue = 357.091"] ;
87 -> 88 ;
89 [label="mse = 1945.429\nsamples = 7\nvalue = 403.0"] ;
88 -> 89 ;
90 [label="mse = 143.188\nsamples = 4\nvalue = 276.75"] ;
88 -> 90 ;
91 [label="trip_month <= 10.0\nmse = 1130.857\nsamples = 7\nvalue = 203.0"] ;
87 -> 91 ;
92 [label="mse = 0.0\nsamples = 1\nvalue = 272.0"] ;
91 -> 92 ;
93 [label="mse = 393.583\nsamples = 6\nvalue = 191.5"] ;
91 -> 93 ;
94 [label="avg_dur <= 523.153\nmse = 7965.862\nsamples = 294\nvalue = 58.48"] ;
62 -> 94 ;
95 [label="subroute_name_Naypyitaw-Yangon <= 0.5\nmse = 505.101\nsamples = 202\nvalue = 29.089"] ;
94 -> 95 ;
96 [label="avg_dur <= 494.634\nmse = 258.301\nsamples = 169\nvalue = 23.982"] ;
95 -> 96 ;
97 [label="avg_dur <= 307.059\nmse = 218.617\nsamples = 164\nvalue = 22.848"] ;
96 -> 97 ;
98 [label="mse = 94.933\nsamples = 47\nvalue = 13.702"] ;
97 -> 98 ;
99 [label="mse = 221.207\nsamples = 117\nvalue = 26.521"] ;
97 -> 99 ;
100 [label="trip_month <= 7.5\nmse = 132.56\nsamples = 5\nvalue = 61.2"] ;
96 -> 100 ;
101 [label="mse = 8.667\nsamples = 3\nvalue = 52.0"] ;
100 -> 101 ;
102 [label="mse = 1.0\nsamples = 2\nvalue = 75.0"] ;
100 -> 102 ;
103 [label="depart_period_night <= 0.5\nmse = 951.456\nsamples = 33\nvalue = 55.242"] ;
95 -> 103 ;
104 [label="trip_month <= 3.5\nmse = 856.916\nsamples = 21\nvalue = 69.476"] ;
103 -> 104 ;
105 [label="mse = 507.333\nsamples = 6\nvalue = 87.0"] ;
104 -> 105 ;
106 [label="mse = 824.782\nsamples = 15\nvalue = 62.467"] ;
104 -> 106 ;
107 [label="trip_month <= 6.5\nmse = 141.889\nsamples = 12\nvalue = 30.333"] ;
103 -> 107 ;
108 [label="mse = 120.806\nsamples = 6\nvalue = 23.833"] ;
107 -> 108 ;
109 [label="mse = 78.472\nsamples = 6\nvalue = 36.833"] ;
107 -> 109 ;
110 [label="avg_dur <= 544.413\nmse = 18286.206\nsamples = 92\nvalue = 123.011"] ;
94 -> 110 ;
111 [label="bus_class <= 1.5\nmse = 21705.256\nsamples = 51\nvalue = 181.196"] ;
110 -> 111 ;
112 [label="depart_period_morn <= 0.5\nmse = 19611.27\nsamples = 42\nvalue = 215.667"] ;
111 -> 112 ;
113 [label="mse = 12200.917\nsamples = 24\nvalue = 309.5"] ;
112 -> 113 ;
114 [label="mse = 2099.358\nsamples = 18\nvalue = 90.556"] ;
112 -> 114 ;
115 [label="trip_month <= 7.5\nmse = 55.333\nsamples = 9\nvalue = 20.333"] ;
111 -> 115 ;
116 [label="mse = 29.0\nsamples = 4\nvalue = 14.0"] ;
115 -> 116 ;
117 [label="mse = 18.64\nsamples = 5\nvalue = 25.4"] ;
115 -> 117 ;
118 [label="avg_dur <= 688.047\nmse = 4583.598\nsamples = 41\nvalue = 50.634"] ;
110 -> 118 ;
119 [label="avg_dur <= 607.059\nmse = 304.846\nsamples = 30\nvalue = 20.233"] ;
118 -> 119 ;
120 [label="mse = 121.641\nsamples = 27\nvalue = 16.63"] ;
119 -> 120 ;
121 [label="mse = 784.889\nsamples = 3\nvalue = 52.667"] ;
119 -> 121 ;
122 [label="trip_month <= 9.5\nmse = 6858.066\nsamples = 11\nvalue = 133.545"] ;
118 -> 122 ;
123 [label="mse = 2280.438\nsamples = 8\nvalue = 91.75"] ;
122 -> 123 ;
124 [label="mse = 1984.667\nsamples = 3\nvalue = 245.0"] ;
122 -> 124 ;
}