digraph Tree {
node [shape=box] ;
0 [label="is_foreigner <= 0.5\nmse = 1573410.526\nsamples = 1120\nvalue = 808.203"] ;
1 [label="bus_class <= 0.5\nmse = 2082961.333\nsamples = 482\nvalue = 1749.481"] ;
0 -> 1 [labeldistance=2.5, labelangle=45, headlabel="True"] ;
2 [label="avg_dur <= 526.074\nmse = 1998000.49\nsamples = 190\nvalue = 2820.547"] ;
1 -> 2 ;
3 [label="depart_period_morn <= 0.5\nmse = 1039689.824\nsamples = 134\nvalue = 3437.306"] ;
2 -> 3 ;
4 [label="avg_dur <= 350.687\nmse = 1073496.705\nsamples = 88\nvalue = 3121.102"] ;
3 -> 4 ;
5 [label="mse = 447997.84\nsamples = 25\nvalue = 3741.0"] ;
4 -> 5 ;
6 [label="mse = 1108709.527\nsamples = 63\nvalue = 2875.111"] ;
4 -> 6 ;
7 [label="avg_dur <= 337.537\nmse = 417822.735\nsamples = 46\nvalue = 4042.217"] ;
3 -> 7 ;
8 [label="mse = 468993.679\nsamples = 23\nvalue = 3741.13"] ;
7 -> 8 ;
9 [label="mse = 185345.081\nsamples = 23\nvalue = 4343.304"] ;
7 -> 9 ;
10 [label="depart_period_night <= 0.5\nmse = 1202848.696\nsamples = 56\nvalue = 1344.732"] ;
2 -> 10 ;
11 [label="avg_dur <= 633.905\nmse = 340138.158\nsamples = 51\nvalue = 1049.863"] ;
10 -> 11 ;
12 [label="mse = 82963.0\nsamples = 18\nvalue = 566.333"] ;
11 -> 12 ;
13 [label="mse = 283327.33\nsamples = 33\nvalue = 1313.606"] ;
11 -> 13 ;
14 [label="trip_month <= 3.5\nmse = 69561.04\nsamples = 5\nvalue = 4352.4"] ;
10 -> 14 ;
15 [label="mse = 0.0\nsamples = 1\nvalue = 4714.0"] ;
14 -> 15 ;
16 [label="mse = 46090.5\nsamples = 4\nvalue = 4262.0"] ;
14 -> 16 ;
17 [label="avg_dur <= 515.895\nmse = 906083.137\nsamples = 292\nvalue = 1052.555"] ;
1 -> 17 ;
18 [label="bus_class <= 1.5\nmse = 198291.555\nsamples = 217\nvalue = 803.677"] ;
17 -> 18 ;
19 [label="avg_dur <= 312.589\nmse = 151180.855\nsamples = 198\nvalue = 879.768"] ;
18 -> 19 ;
20 [label="mse = 86934.557\nsamples = 68\nvalue = 660.176"] ;
19 -> 20 ;
21 [label="mse = 146370.156\nsamples = 130\nvalue = 994.631"] ;
19 -> 21 ;
22 [label="avg_dur <= 497.368\nmse = 144.825\nsamples = 19\nvalue = 10.737"] ;
18 -> 22 ;
23 [label="mse = 62.469\nsamples = 18\nvalue = 8.556"] ;
22 -> 23 ;
24 [label="mse = 0.0\nsamples = 1\nvalue = 50.0"] ;
22 -> 24 ;
25 [label="avg_dur <= 534.752\nmse = 2256224.497\nsamples = 75\nvalue = 1772.64"] ;
17 -> 25 ;
26 [label="bus_class <= 1.5\nmse = 856336.056\nsamples = 24\nvalue = 3516.167"] ;
25 -> 26 ;
27 [label="mse = 352262.922\nsamples = 23\nvalue = 3666.348"] ;
26 -> 27 ;
28 [label="mse = 0.0\nsamples = 1\nvalue = 62.0"] ;
26 -> 28 ;
29 [label="avg_dur <= 628.863\nmse = 811268.72\nsamples = 51\nvalue = 952.157"] ;
25 -> 29 ;
30 [label="mse = 8216.228\nsamples = 36\nvalue = 538.778"] ;
29 -> 30 ;
31 [label="mse = 1344195.396\nsamples = 15\nvalue = 1944.267"] ;
29 -> 31 ;
32 [label="bus_class <= 0.5\nmse = 13391.873\nsamples = 638\nvalue = 97.08"] ;
0 -> 32 [labeldistance=2.5, labelangle=-45, headlabel="False"] ;
33 [label="subroute_name_Naypyitaw-Yangon <= 0.5\nmse = 15667.472\nsamples = 344\nvalue = 130.07"] ;
32 -> 33 ;
34 [label="avg_dur <= 598.571\nmse = 14503.212\nsamples = 308\nvalue = 115.925"] ;
33 -> 34 ;
35 [label="avg_dur <= 518.998\nmse = 15848.622\nsamples = 248\nvalue = 133.121"] ;
34 -> 35 ;
36 [label="mse = 4629.498\nsamples = 194\nvalue = 93.196"] ;
35 -> 36 ;
37 [label="mse = 29854.247\nsamples = 54\nvalue = 276.556"] ;
35 -> 37 ;
38 [label="depart_period_aft <= 0.5\nmse = 2668.294\nsamples = 60\nvalue = 44.85"] ;
34 -> 38 ;
39 [label="mse = 5613.4\nsamples = 20\nvalue = 68.0"] ;
38 -> 39 ;
40 [label="mse = 793.799\nsamples = 40\nvalue = 33.275"] ;
38 -> 40 ;
41 [label="trip_month <= 6.5\nmse = 9272.41\nsamples = 36\nvalue = 251.083"] ;
33 -> 41 ;
42 [label="avg_dur <= 304.023\nmse = 5172.444\nsamples = 18\nvalue = 205.0"] ;
41 -> 42 ;
43 [label="mse = 1620.531\nsamples = 7\nvalue = 275.429"] ;
42 -> 43 ;
44 [label="mse = 2267.603\nsamples = 11\nvalue = 160.182"] ;
42 -> 44 ;
45 [label="avg_dur <= 317.905\nmse = 9125.028\nsamples = 18\nvalue = 297.167"] ;
41 -> 45 ;
46 [label="mse = 4978.446\nsamples = 11\nvalue = 357.091"] ;
45 -> 46 ;
47 [label="mse = 1130.857\nsamples = 7\nvalue = 203.0"] ;
45 -> 47 ;
48 [label="avg_dur <= 523.153\nmse = 7965.862\nsamples = 294\nvalue = 58.48"] ;
32 -> 48 ;
49 [label="subroute_name_Naypyitaw-Yangon <= 0.5\nmse = 505.101\nsamples = 202\nvalue = 29.089"] ;
48 -> 49 ;
50 [label="avg_dur <= 494.634\nmse = 258.301\nsamples = 169\nvalue = 23.982"] ;
49 -> 50 ;
51 [label="mse = 218.617\nsamples = 164\nvalue = 22.848"] ;
50 -> 51 ;
52 [label="mse = 132.56\nsamples = 5\nvalue = 61.2"] ;
50 -> 52 ;
53 [label="depart_period_night <= 0.5\nmse = 951.456\nsamples = 33\nvalue = 55.242"] ;
49 -> 53 ;
54 [label="mse = 856.916\nsamples = 21\nvalue = 69.476"] ;
53 -> 54 ;
55 [label="mse = 141.889\nsamples = 12\nvalue = 30.333"] ;
53 -> 55 ;
56 [label="avg_dur <= 544.413\nmse = 18286.206\nsamples = 92\nvalue = 123.011"] ;
48 -> 56 ;
57 [label="bus_class <= 1.5\nmse = 21705.256\nsamples = 51\nvalue = 181.196"] ;
56 -> 57 ;
58 [label="mse = 19611.27\nsamples = 42\nvalue = 215.667"] ;
57 -> 58 ;
59 [label="mse = 55.333\nsamples = 9\nvalue = 20.333"] ;
57 -> 59 ;
60 [label="avg_dur <= 688.047\nmse = 4583.598\nsamples = 41\nvalue = 50.634"] ;
56 -> 60 ;
61 [label="mse = 304.846\nsamples = 30\nvalue = 20.233"] ;
60 -> 61 ;
62 [label="mse = 6858.066\nsamples = 11\nvalue = 133.545"] ;
60 -> 62 ;
}