digraph Tree {
node [shape=box] ;
0 [label="bus_class <= 0.5\nmse = 25165514.128\nsamples = 668\nvalue = 4015.298"] ;
1 [label="depart_period_night <= 0.5\nmse = 32103432.461\nsamples = 351\nvalue = 5962.838"] ;
0 -> 1 [labeldistance=2.5, labelangle=45, headlabel="True"] ;
2 [label="avg_dur <= 589.089\nmse = 7081892.647\nsamples = 231\nvalue = 4418.29"] ;
1 -> 2 ;
3 [label="avg_dur <= 510.731\nmse = 5069349.191\nsamples = 182\nvalue = 5319.308"] ;
2 -> 3 ;
4 [label="mse = 2985171.418\nsamples = 156\nvalue = 4829.891"] ;
3 -> 4 ;
5 [label="mse = 7514211.54\nsamples = 26\nvalue = 8255.808"] ;
3 -> 5 ;
6 [label="avg_dur <= 633.905\nmse = 341695.982\nsamples = 49\nvalue = 1071.653"] ;
2 -> 6 ;
7 [label="mse = 92310.984\nsamples = 16\nvalue = 572.625"] ;
6 -> 7 ;
8 [label="mse = 283327.33\nsamples = 33\nvalue = 1313.606"] ;
6 -> 8 ;
9 [label="avg_dur <= 507.791\nmse = 66837324.583\nsamples = 120\nvalue = 8936.092"] ;
1 -> 9 ;
10 [label="subroute_name_Yangon-Naypyitaw <= 0.5\nmse = 5635364.71\nsamples = 84\nvalue = 4910.833"] ;
9 -> 10 ;
11 [label="mse = 2415908.201\nsamples = 72\nvalue = 4154.722"] ;
10 -> 11 ;
12 [label="mse = 940535.25\nsamples = 12\nvalue = 9447.5"] ;
10 -> 12 ;
13 [label="subroute_name_Yangon-Taunggyi <= 0.5\nmse = 83620861.453\nsamples = 36\nvalue = 18328.361"] ;
9 -> 13 ;
14 [label="mse = 7345348.748\nsamples = 24\nvalue = 24575.792"] ;
13 -> 14 ;
15 [label="mse = 1989555.583\nsamples = 12\nvalue = 5833.5"] ;
13 -> 15 ;
16 [label="avg_dur <= 515.895\nmse = 8633579.385\nsamples = 317\nvalue = 1858.874"] ;
0 -> 16 [labeldistance=2.5, labelangle=-45, headlabel="False"] ;
17 [label="avg_dur <= 450.0\nmse = 198291.555\nsamples = 217\nvalue = 803.677"] ;
16 -> 17 ;
18 [label="avg_dur <= 312.589\nmse = 151180.855\nsamples = 198\nvalue = 879.768"] ;
17 -> 18 ;
19 [label="mse = 86934.557\nsamples = 68\nvalue = 660.176"] ;
18 -> 19 ;
20 [label="mse = 146370.156\nsamples = 130\nvalue = 994.631"] ;
18 -> 20 ;
21 [label="avg_dur <= 497.368\nmse = 144.825\nsamples = 19\nvalue = 10.737"] ;
17 -> 21 ;
22 [label="mse = 62.469\nsamples = 18\nvalue = 8.556"] ;
21 -> 22 ;
23 [label="mse = 0.0\nsamples = 1\nvalue = 50.0"] ;
21 -> 23 ;
24 [label="avg_dur <= 542.442\nmse = 19278915.428\nsamples = 100\nvalue = 4148.65"] ;
16 -> 24 ;
25 [label="depart_period_morn <= 0.5\nmse = 17463500.384\nsamples = 49\nvalue = 7251.939"] ;
24 -> 25 ;
26 [label="mse = 6021374.443\nsamples = 24\nvalue = 11076.875"] ;
25 -> 26 ;
27 [label="mse = 919875.28\nsamples = 25\nvalue = 3580.0"] ;
25 -> 27 ;
28 [label="bus_class <= 1.5\nmse = 2880513.349\nsamples = 51\nvalue = 1167.059"] ;
24 -> 28 ;
29 [label="mse = 4597449.963\nsamples = 28\nvalue = 1706.464"] ;
28 -> 29 ;
30 [label="mse = 4907.369\nsamples = 23\nvalue = 510.391"] ;
28 -> 30 ;
}